{
  "experiment_name": "teach_robot_20250527_102311",
  "iteration": 2,
  "episode_counter": 4,
  "current_phase": "agent",
  "experiment_log": [
    {
      "timestamp": "2025-05-27T10:27:07.303456",
      "iteration": 2,
      "phase": "irl_update",
      "update_result": {
        "status": "updated",
        "iteration": 1,
        "reward_weights": [
          0.023301727980264444,
          0.1656803745428831,
          -0.029795902291954918,
          -0.04663039990778843,
          0.04482563320289162,
          -0.08232305323330685,
          -0.017802912051322707,
          0.07961041792511774,
          0.03555721275747093,
          -0.04316380909885779,
          0.0077845606624595285,
          -0.12731983382486414,
          0.06548198484828832,
          -0.015438831016527,
          -0.03955719712323726,
          0.012419801311910986,
          -0.07476171245596037,
          -0.04387030575294803,
          0.09521258081712193,
          0.07705476094898728,
          -0.027417869937873984,
          -0.07752822098230354,
          0.02097376184121296,
          -0.05136884038752877,
          -0.005815729619212698,
          -0.007336773444331244,
          -0.1015322064654427,
          0.07232414843814029,
          0.05833915004129917,
          0.08539581838079821,
          0.07759239070712896,
          -0.12643860532263704,
          0.06444420493097211,
          0.08744507932270255,
          0.018389714533456086,
          0.037715558214605455,
          -0.1329403449053916,
          0.028967219296838688,
          -0.054141106386220356,
          0.11040523606059185,
          0.059112285016937355,
          0.037272014509167,
          -0.07235667364251976,
          0.09851626706654591,
          -0.034068288188795655,
          0.0797247872420622,
          -0.04074893542308348,
          0.03429208746363337,
          0.06260256832200146,
          -0.10217511288463428,
          0.030759267897783955,
          -0.11241699987441825,
          0.032022503827336395,
          -0.008187180486013303,
          0.06932425398594734,
          0.013315505737620158,
          0.04732712582155383,
          -0.04658713505697303,
          -0.032402749159097376,
          0.05825986577902505,
          -0.016024730436849745,
          0.018243003013742043,
          -0.047380888249197256,
          0.09550675849079865,
          0.048972680888964365,
          0.004116803322866563,
          0.015649093000948158,
          0.022108499726548828,
          -0.04362968577017166,
          -0.05726013141898665,
          -0.02444612796063682,
          0.014258508778934606,
          0.0423178887986187,
          0.07714868774688974,
          -0.07215024543397631,
          0.18216449620837305,
          0.052111517914694164,
          -0.10738731170228408,
          0.0419751121843809,
          -0.005030334506094413,
          0.03649796124903948,
          -0.023112932426150815,
          -0.05228978027592476,
          -0.18067847195331943,
          0.10352349308821902,
          0.0711788311560547,
          0.05780006163799455,
          -0.014112215036950378,
          -0.06391214179263113,
          -0.01944861584844194,
          -0.08878714960405201,
          0.02990755394622348,
          0.0031113108979547036,
          -0.04345665700259926,
          -0.03744310282997303,
          0.07343856153745641,
          -0.025328992578822533,
          0.04824322583068443,
          0.11355665948155096,
          0.03980507735022752,
          -0.08138969108224695,
          0.04161006609616228,
          -0.028795110974645884,
          -0.037390117979457814,
          0.05014183822911415,
          0.06162343369683737,
          -0.02880750730049364,
          -0.012213644575803526,
          0.0635984188391968,
          0.08861987722184352,
          -0.10028483735139185,
          0.04608090741991897,
          0.03867156729995157,
          0.03363828464461355,
          0.0008789799452975334,
          -0.03259374245921651,
          0.018498818602905007,
          -0.052883321975901926,
          0.08035749863479351,
          -0.019029205651430497,
          0.08742748972216619,
          0.022127182495800105,
          0.01978423993264398,
          0.10009386318274742,
          0.04959453671261207,
          0.005301435016069987,
          0.11019125764358063,
          0.01173863265030363,
          0.05854060811585809,
          -0.033309767900273804,
          -0.026304293825291515,
          -0.015576046375042682,
          -0.05811253212649646,
          -0.008450667582704028,
          0.05255428039607803,
          0.06357182939880139,
          0.021199819199823777,
          -0.0910330165320149,
          0.08490693895023409,
          0.0007632687213827139,
          -0.06498582411311404,
          0.03202398469116175,
          -0.029324617167367242,
          -0.003339878462502239,
          0.06943448367730205,
          0.020478510395342955,
          -0.08841720911708503,
          0.024302924817964637,
          0.022862066208468354,
          0.04210905811386845,
          -0.004944762989393547,
          0.06224801272413837,
          0.012312766377763993,
          -0.030700371018858086,
          0.028221885813627792,
          -0.07988778554678118,
          0.01828151437936438,
          0.08385611373380145,
          -0.03410853920602086,
          0.014961266986981863,
          0.06422866364661627,
          0.011055588821726412,
          0.05387886408112643,
          0.007274206216917377,
          0.028110468357883174,
          0.034579728874985526,
          0.033782954215503085,
          0.06415928093210195,
          -0.009217223918782555,
          -0.0008460806155707183,
          -0.045376682897373045,
          -0.08112088123714402,
          -0.00885544470873789,
          -0.06670868932517833,
          0.1042292948352481,
          0.021364014702680095,
          0.0015929833580968955,
          0.07316507117064258,
          0.12700022903947292,
          -0.05852868275529466,
          0.008185876183328002,
          -0.06610820275181131,
          -0.05322806677908055,
          0.03877660786281598,
          0.11494186883601375,
          -0.09746517290234263,
          0.05883804385646229,
          0.007292617565103857,
          -0.022685922974199975,
          -0.026720498998151224,
          0.07877933904860268,
          0.11812762967001986,
          -0.0343172092463866,
          -0.032130681141665486,
          0.02211568619511677,
          -0.09803109718848113,
          0.08204744588681143,
          0.008235114121336153,
          0.002711735681066627,
          -0.07454942593955788,
          -0.0932168493083174,
          0.021582348216105683,
          -0.01533952056255203,
          0.04727988508907523,
          0.11599118432338018,
          -0.015783811796421448,
          0.023529932240182957,
          -0.0503966114407954,
          0.025842656365993245,
          0.011418582833032554,
          -0.004625400238754386,
          -0.147015002366336,
          0.08882735646822296,
          -0.07740721267845742,
          0.028462625205698613,
          0.08550934133322761,
          0.11488082114898651,
          0.004744703347794431,
          -0.042939004156839024,
          -0.011865708196296532,
          0.08474543631421681,
          0.09267283824706081,
          -0.0982147343977051,
          0.050361839171332815,
          0.07949614733416513,
          -0.006724169516606352,
          -0.110265634289467,
          -0.001432111290990015,
          -0.01515906751269545,
          -0.04133623458341938,
          0.02935060613883937,
          0.04437567221715019,
          -0.031065203438424723,
          0.045075043136671114,
          0.039345917100562,
          0.047178523608189145,
          -0.0030016928845628425,
          -0.01232545703381864,
          -0.12140942900428488,
          0.0312980441834494,
          0.02438684976682597,
          0.07894228303977369,
          -0.08329909685319402,
          0.002479011710260308,
          -0.04127848252636819,
          0.04124596489629765,
          -0.06877959187825312,
          0.02964767941992036,
          0.09918560269894858,
          -0.04496736182410086,
          0.1116382683371793,
          0.028381962165203195,
          0.12989392029273494,
          -0.04790165715104334,
          -0.06384936042777532,
          0.009618864629465231,
          0.03544229742407624,
          0.05708718972088325,
          -0.03779040352948141
        ],
        "num_human_trajectories": 2,
        "num_human_states": 45
      }
    }
  ]
}