{
  "experiment_name": "test2",
  "iteration": 1,
  "episode_counter": 2,
  "current_phase": "agent",
  "experiment_log": [
    {
      "timestamp": "2025-05-27T10:07:38.253735",
      "iteration": 1,
      "phase": "irl_update",
      "update_result": {
        "status": "updated",
        "iteration": 1,
        "reward_weights": [
          0.0036998866991050767,
          -0.044612710346247746,
          -0.003965003843153251,
          0.00022394695841301753,
          -0.014760601247085227,
          0.08931422533396255,
          0.0030391148177844243,
          0.02147022961544339,
          0.05590383217338607,
          -0.03389301536613952,
          -0.08411390815673146,
          -0.14098400846476403,
          0.14882060509117676,
          -0.009116501621774254,
          0.06689885060762395,
          -0.062118999155759594,
          0.031226775147048767,
          0.0075601929735760265,
          0.1254349181412922,
          0.16053075879564843,
          0.011658883759484342,
          0.16341128138438607,
          -0.00449625764655039,
          0.03192129108650019,
          -0.02609276616807662,
          0.08567731335442626,
          -0.002515103229490781,
          -0.019985742132790415,
          0.0394345396076946,
          0.10097139321760153,
          -0.12764782550969508,
          -0.024752072492062453,
          -0.14299175775640716,
          0.04349894497886099,
          -0.03771113195512507,
          0.01733617300304658,
          0.09269075332781687,
          -0.017037374878195427,
          0.03135224885212316,
          0.006051292892404523,
          0.08858419229073583,
          0.025209477776659675,
          -0.033676494320497255,
          0.01648902788595967,
          -0.005345308473215425,
          0.025265977791093942,
          0.005844328333321077,
          -0.021871013938730737,
          -0.021215555678371995,
          0.04614322209206782,
          -0.042102196799896095,
          -0.07549191219572626,
          0.03284616462266259,
          0.03245619754956724,
          0.06654164910826457,
          -0.026686714351026045,
          0.04757442528647175,
          0.028861881975914144,
          0.0058197828421029186,
          0.07102219077404422,
          0.14409044181467218,
          -0.1381303719909021,
          -0.06023698635200978,
          0.013785243355586483,
          -0.0010036140659711779,
          0.01018366150660343,
          -0.008018707833012114,
          0.009101565193145294,
          -0.05725263105803852,
          -0.036415312120245534,
          0.06372960597350534,
          0.046413962193216154,
          0.0193317404040895,
          0.105333705435042,
          0.009010880055869202,
          -0.04861096345094715,
          0.036381890824885375,
          0.006422041745015085,
          0.03255031049880211,
          -0.04297464866811331,
          -0.0012497339644592634,
          0.08228293709162131,
          -0.021338190744922252,
          0.0007862137564708542,
          -0.0341380357728368,
          -0.014510104508180572,
          0.005404733037070571,
          0.06990413618734402,
          -0.0444919823059176,
          -0.11934861070101642,
          0.02182432867740645,
          0.044467373554538746,
          -0.0008599125888144628,
          -0.0014141790514263695,
          -0.0002523967318288826,
          -0.09596122896159645,
          -0.027035544709636,
          -0.04673658872537078,
          -0.026240756741621855,
          -0.01702580616987292,
          0.048985741431038635,
          -0.03210515993453387,
          -0.0734169953497,
          0.084182515587537,
          -0.06422865490055177,
          0.13150939479908597,
          -0.019521807213999594,
          -0.041213025781222386,
          -0.037969529955935964,
          0.08708970145838739,
          -0.0575811378448314,
          -0.011551819821515878,
          0.08876103292492622,
          -0.07480241388084144,
          0.06529859397838492,
          -0.013774801006860548,
          0.05326171377675137,
          -0.09043581069204935,
          0.12024489637531204,
          -0.03510791524619004,
          -0.06792059483618235,
          0.030912288222758467,
          -0.06245608318658496,
          0.04720106144086931,
          -0.09904480556154123,
          -0.0039348459712343535,
          0.038769485961107505,
          0.012081011474512527,
          0.10024868344694478,
          -0.02050788512670721,
          0.03070723187491779,
          0.00492777781507467,
          0.06953404120697312,
          0.048742183494783715,
          0.03269533347897365,
          0.045585338105904025,
          0.03598254704245608,
          -0.03430872185764978,
          -0.034787552355355786,
          0.04917158257359831,
          -0.007521163743772952,
          0.04730789213207727,
          0.029745095100494143,
          -0.0809123882232031,
          0.0697554268614599,
          0.08634207159415642,
          -0.004764621720399003,
          0.04248056597704268,
          0.0653716340994004,
          0.02987861481525738,
          0.10520855919947379,
          -0.031243175594811726,
          -0.01373654475828106,
          -0.008628578886519385,
          0.024866037450501744,
          -0.029707697047024795,
          0.24495410261629716,
          0.029940797907404518,
          0.042397574857573714,
          0.023256281600118278,
          -0.07936058900747833,
          -0.042638191194126186,
          0.022805228178851243,
          0.013814478971135484,
          -0.06366924851312063,
          0.028136159665239212,
          -0.04626812775200382,
          -0.10793244374172277,
          0.01059936328079984,
          0.09302197961762554,
          0.03298788759023404,
          0.059321943821807464,
          -0.04573634116950076,
          0.06013369982222036,
          -0.051903516460803996,
          0.02854642979039704,
          0.09693753009991385,
          0.007667462444689573,
          -0.12410889019157792,
          0.0497349979400142,
          -0.059626900843674946,
          -0.12092294751138251,
          -0.011139861305710982,
          -0.020803871327101688,
          -0.08968729771289231,
          0.012197438638498525,
          -0.031167277621511887,
          -0.07616812320586333,
          0.0838303626285578,
          -0.036791514895376534,
          0.022636469248155166,
          -0.13639319620766596,
          0.06279766518967009,
          0.017481228256496287,
          0.0582661027996647,
          0.09644755205203254,
          0.03765277969769091,
          -0.07805543066047885,
          -0.025623612013079732,
          0.05471448205773738,
          0.0744941524000844,
          0.006932074320077315,
          -0.022699512054831023,
          -0.02483813283970002,
          -0.03190114809211552,
          0.08535882560572017,
          0.055151740760810475,
          0.028468178302699265,
          -0.061036717488179223,
          0.02007732034582347,
          0.0010915608301415218,
          -0.0023772613083742917,
          0.041593525593137316,
          -0.05908783059241708,
          -0.004568330964765649,
          0.012425267209912952,
          0.13021553467673017,
          0.03523023192768037,
          0.08345832460502195,
          -0.13878788075866005,
          -0.028706017703945676,
          0.026012268816424135,
          0.008244857386625237,
          -0.12737061146794965,
          0.03796463953416236,
          0.036154340180840266,
          -0.08121827253413509,
          -0.04899790429520812,
          0.040390841033213096,
          -0.03429976627186696,
          0.08860450755755905,
          0.0789509502296514,
          0.1262243958970283,
          0.009743872178185996,
          -0.03573469264236676,
          0.010394645631485545,
          0.09467630539064062,
          0.05466037079454736,
          -0.0025511478409166225,
          0.019194512406391053,
          0.05245171592134,
          -0.05467248430181713,
          -0.12765610359626672,
          -0.03195687604829823,
          0.012712167441804208,
          0.011587819465308817,
          -0.08403007935092863,
          -0.08300352626630172,
          -0.026820988817864932,
          0.004991936629743861,
          0.07689683864134018,
          0.04920397196135056,
          0.012205862257833584,
          0.04525399079062131,
          -0.06851894740304733,
          -0.03873044801377395,
          0.06884329323518464,
          -0.007414500649973288,
          0.048383674667801746
        ],
        "num_human_trajectories": 1,
        "num_human_states": 57
      }
    }
  ]
}